~o
<STREAMINFO> 1 10
<VECSIZE> 10<NULLD><MFCC><DIAGC>
~h "Albi"
<BEGINHMM>
<NUMSTATES> 6
<STATE> 2
<MEAN> 10
 -1.730817e+00 4.991457e+00 1.401899e+00 1.342610e+00 3.875509e-02 2.780461e-01 2.809213e-01 1.659098e-01 -7.602419e-02 -1.414599e-01
<VARIANCE> 10
 2.590387e+01 4.306150e-01 6.312362e-01 2.448234e-01 2.779462e-01 1.271190e-01 1.108593e-01 1.735815e-01 1.375351e-01 1.768765e-01
<GCONST> 7.913589e+00
<STATE> 3
<MEAN> 10
 6.095114e-02 5.091594e+00 1.829672e+00 1.497256e+00 5.187647e-01 7.155197e-01 -1.954628e-01 5.643045e-02 -1.720566e-01 -3.285993e-01
<VARIANCE> 10
 8.760962e+00 4.817415e-01 3.635210e-01 2.005350e-01 2.298205e-01 1.032880e-01 1.335519e-01 5.519496e-02 1.444786e-01 1.711910e-01
<GCONST> 4.849607e+00
<STATE> 4
<MEAN> 10
 1.782779e+00 4.106917e+00 1.106696e+00 6.951526e-01 2.365797e-01 1.221652e+00 7.218624e-01 1.021409e+00 1.141470e+00 -1.055389e-01
<VARIANCE> 10
 5.277622e+00 3.121064e-01 3.372082e-01 1.655522e-01 9.989839e-02 1.228031e-01 1.094815e-01 9.622641e-02 1.068918e-01 1.136023e-01
<GCONST> 2.627495e+00
<STATE> 5
<MEAN> 10
 -5.970471e+00 4.813746e+00 1.848166e+00 9.646812e-01 3.165732e-01 6.817864e-01 4.213830e-01 4.812234e-01 3.744105e-01 6.536745e-02
<VARIANCE> 10
 2.919023e+00 2.219780e-01 2.530173e-01 4.706128e-02 5.962538e-02 9.010112e-02 4.686304e-02 5.871398e-02 4.540064e-02 3.974483e-02
<GCONST> -3.925364e+00
<TRANSP> 6
 0.000000e+00 1.000000e+00 0.000000e+00 0.000000e+00 0.000000e+00 0.000000e+00
 0.000000e+00 8.757764e-01 1.242236e-01 0.000000e+00 0.000000e+00 0.000000e+00
 0.000000e+00 0.000000e+00 8.876405e-01 1.123595e-01 0.000000e+00 0.000000e+00
 0.000000e+00 0.000000e+00 0.000000e+00 9.047619e-01 9.523809e-02 0.000000e+00
 0.000000e+00 0.000000e+00 0.000000e+00 0.000000e+00 7.979798e-01 2.020202e-01
 0.000000e+00 0.000000e+00 0.000000e+00 0.000000e+00 0.000000e+00 0.000000e+00
<ENDHMM>
