~o
<STREAMINFO> 1 10
<VECSIZE> 10<NULLD><MFCC><DIAGC>
~h "Alejandro"
<BEGINHMM>
<NUMSTATES> 6
<STATE> 2
<MEAN> 10
 -1.408622e+00 4.527494e+00 1.529571e+00 1.605214e+00 3.331275e-01 5.789190e-01 4.089604e-01 6.008147e-01 -2.119866e-02 -1.149821e-01
<VARIANCE> 10
 1.138810e+01 6.331353e-01 4.092605e-01 2.679939e-01 2.155600e-01 2.836022e-01 1.319261e-01 2.057121e-01 1.588786e-01 1.356124e-01
<GCONST> 7.905015e+00
<STATE> 3
<MEAN> 10
 2.460180e+00 3.416472e+00 6.312076e-01 1.084964e+00 4.232568e-01 1.209732e+00 5.805519e-01 9.551528e-01 8.152178e-01 2.002448e-01
<VARIANCE> 10
 3.634876e+00 1.478978e+00 5.826231e-01 2.527318e-01 3.011228e-01 1.468942e-01 1.119607e-01 1.131733e-01 1.830847e-01 9.193487e-02
<GCONST> 6.573852e+00
<STATE> 4
<MEAN> 10
 -4.109974e-01 5.204281e+00 2.119313e+00 1.548766e+00 7.511736e-01 5.553240e-01 -1.223329e-01 4.454488e-01 1.944813e-01 -1.386122e-01
<VARIANCE> 10
 2.181819e+00 5.486932e-01 2.070005e-01 1.427281e-01 2.058701e-01 1.449683e-01 9.137912e-02 1.074472e-01 1.017524e-01 1.194963e-01
<GCONST> 2.491940e+00
<STATE> 5
<MEAN> 10
 -5.254565e+00 5.013946e+00 2.410387e+00 1.283745e+00 6.805130e-01 5.963581e-01 3.130158e-01 3.014534e-01 1.280276e-01 5.220347e-02
<VARIANCE> 10
 5.556781e+00 6.411437e-01 1.260403e-01 9.397255e-02 1.086217e-01 4.009252e-02 6.431672e-02 2.843545e-02 3.053230e-02 3.354808e-02
<GCONST> -3.410867e+00
<TRANSP> 6
 0.000000e+00 1.000000e+00 0.000000e+00 0.000000e+00 0.000000e+00 0.000000e+00
 0.000000e+00 9.260700e-01 7.392996e-02 0.000000e+00 0.000000e+00 0.000000e+00
 0.000000e+00 0.000000e+00 9.214876e-01 7.851240e-02 0.000000e+00 0.000000e+00
 0.000000e+00 0.000000e+00 0.000000e+00 9.099526e-01 9.004739e-02 0.000000e+00
 0.000000e+00 0.000000e+00 0.000000e+00 0.000000e+00 8.789809e-01 1.210191e-01
 0.000000e+00 0.000000e+00 0.000000e+00 0.000000e+00 0.000000e+00 0.000000e+00
<ENDHMM>
