~o
<STREAMINFO> 1 10
<VECSIZE> 10<NULLD><MFCC><DIAGC>
~h "Alexander"
<BEGINHMM>
<NUMSTATES> 6
<STATE> 2
<MEAN> 10
 -1.097626e+00 4.650347e+00 1.387174e+00 1.303634e+00 -3.036145e-02 3.997537e-01 4.904497e-01 5.583067e-01 3.469770e-01 9.352477e-02
<VARIANCE> 10
 1.424618e+01 4.994110e-01 3.838246e-01 2.219835e-01 2.459065e-01 2.731698e-01 1.685404e-01 1.387587e-01 2.084591e-01 1.147384e-01
<GCONST> 7.689035e+00
<STATE> 3
<MEAN> 10
 1.862475e+00 1.864597e+00 3.925703e-01 1.307317e+00 -2.377330e-03 6.222705e-01 2.486989e-01 4.685380e-01 3.254225e-01 3.132448e-01
<VARIANCE> 10
 1.668105e+00 3.102457e+00 2.643643e-01 1.340813e-01 1.012607e-01 9.188233e-02 5.561426e-02 7.747147e-02 8.899724e-02 7.328223e-02
<GCONST> 1.525865e+00
<STATE> 4
<MEAN> 10
 7.482382e-01 4.626570e+00 1.776411e+00 1.578420e+00 3.598798e-01 5.835052e-01 3.039288e-01 7.656192e-01 3.905213e-01 -1.422165e-01
<VARIANCE> 10
 2.551312e+00 9.705291e-01 4.384190e-01 2.595695e-01 3.049268e-01 3.420561e-01 2.344742e-01 8.297708e-02 1.301176e-01 1.272304e-01
<GCONST> 6.811015e+00
<STATE> 5
<MEAN> 10
 -3.597929e+00 4.872441e+00 2.077482e+00 1.281892e+00 5.684594e-01 4.656687e-01 2.530991e-01 3.486860e-01 1.778817e-01 -7.394057e-03
<VARIANCE> 10
 9.857467e+00 4.222850e-01 2.035811e-01 1.255701e-01 1.123162e-01 5.107259e-02 4.014019e-02 3.632348e-02 3.687803e-02 5.022871e-02
<GCONST> -1.844577e+00
<TRANSP> 6
 0.000000e+00 1.000000e+00 0.000000e+00 0.000000e+00 0.000000e+00 0.000000e+00
 0.000000e+00 9.413490e-01 5.865103e-02 0.000000e+00 0.000000e+00 0.000000e+00
 0.000000e+00 0.000000e+00 8.809524e-01 1.190476e-01 0.000000e+00 0.000000e+00
 0.000000e+00 0.000000e+00 0.000000e+00 9.406528e-01 5.934719e-02 0.000000e+00
 0.000000e+00 0.000000e+00 0.000000e+00 0.000000e+00 8.974359e-01 1.025641e-01
 0.000000e+00 0.000000e+00 0.000000e+00 0.000000e+00 0.000000e+00 0.000000e+00
<ENDHMM>
