~o
<STREAMINFO> 1 10
<VECSIZE> 10<NULLD><MFCC><DIAGC>
~h "Alex"
<BEGINHMM>
<NUMSTATES> 6
<STATE> 2
<MEAN> 10
 4.380518e-01 4.753751e+00 1.170824e+00 1.158423e+00 -2.478090e-01 9.567214e-02 3.817768e-01 4.172974e-01 -9.493391e-02 9.647705e-02
<VARIANCE> 10
 2.901483e+01 4.480358e-01 6.081007e-01 2.624119e-01 3.703595e-01 1.656308e-01 8.039711e-02 1.053369e-01 1.072612e-01 1.007401e-01
<GCONST> 7.018097e+00
<STATE> 3
<MEAN> 10
 2.576017e+00 4.270817e+00 1.169468e+00 1.484776e+00 -4.305702e-01 5.958601e-01 5.645787e-01 8.185448e-01 4.381030e-01 -2.515065e-01
<VARIANCE> 10
 2.448662e+00 2.398294e-01 4.525902e-01 2.662393e-01 1.434366e-01 1.533026e-01 1.564898e-01 1.829116e-01 2.252124e-01 1.527116e-01
<GCONST> 4.989722e+00
<STATE> 4
<MEAN> 10
 -3.955294e+00 4.350691e+00 1.385338e+00 1.191661e+00 1.162578e-01 4.008051e-01 3.357780e-01 6.935441e-01 5.260470e-01 5.680233e-02
<VARIANCE> 10
 3.100459e+00 6.941306e-01 2.108071e-01 1.221426e-01 1.321944e-01 1.652718e-01 7.383330e-02 5.449472e-02 7.416735e-02 9.017925e-02
<GCONST> 1.139217e+00
<STATE> 5
<MEAN> 10
 -9.751806e-01 1.787821e+00 8.009267e-01 1.394044e+00 1.640236e-01 6.475776e-01 2.139434e-01 3.682202e-01 2.949029e-01 1.920395e-01
<VARIANCE> 10
 1.120129e+01 3.064509e+00 8.635553e-01 1.214929e-01 1.075608e-01 6.543443e-02 5.280768e-02 4.700768e-02 5.754020e-02 7.016540e-02
<GCONST> 3.192974e+00
<TRANSP> 6
 0.000000e+00 1.000000e+00 0.000000e+00 0.000000e+00 0.000000e+00 0.000000e+00
 0.000000e+00 8.862275e-01 1.137724e-01 0.000000e+00 0.000000e+00 0.000000e+00
 0.000000e+00 0.000000e+00 8.994709e-01 1.005291e-01 0.000000e+00 0.000000e+00
 0.000000e+00 0.000000e+00 0.000000e+00 8.137255e-01 1.862745e-01 0.000000e+00
 0.000000e+00 0.000000e+00 0.000000e+00 0.000000e+00 9.211618e-01 7.883818e-02
 0.000000e+00 0.000000e+00 0.000000e+00 0.000000e+00 0.000000e+00 0.000000e+00
<ENDHMM>
