~o
<STREAMINFO> 1 10
<VECSIZE> 10<NULLD><MFCC><DIAGC>
~h "Aurelie"
<BEGINHMM>
<NUMSTATES> 6
<STATE> 2
<MEAN> 10
 -3.315595e+00 5.597296e+00 2.578071e+00 1.239313e+00 5.241387e-01 2.398254e-01 1.661684e-01 5.965883e-01 2.057898e-01 9.399782e-02
<VARIANCE> 10
 7.622107e+00 7.120309e-01 4.007804e-01 1.303428e-01 1.203063e-01 1.238490e-01 6.861392e-02 1.266766e-01 7.109994e-02 6.455112e-02
<GCONST> 2.782511e+00
<STATE> 3
<MEAN> 10
 2.185056e+00 5.571689e+00 1.051394e+00 3.321715e-01 1.020449e-01 6.910809e-01 4.613017e-01 1.114276e+00 8.942040e-01 1.631321e-01
<VARIANCE> 10
 1.334863e+00 4.641902e-01 7.223575e-01 1.028356e-01 1.329629e-01 2.295540e-01 6.807020e-02 6.865427e-02 4.614090e-02 7.908010e-02
<GCONST> 8.317387e-01
<STATE> 4
<MEAN> 10
 2.192444e+00 4.198194e+00 8.978485e-01 9.357831e-01 1.118014e-01 9.479834e-01 8.625905e-01 1.086849e+00 9.966281e-01 5.662896e-02
<VARIANCE> 10
 1.733787e+00 3.113315e-01 3.086725e-01 3.297952e-01 1.863468e-01 2.132856e-01 1.052320e-01 9.938163e-02 1.613963e-01 1.566573e-01
<GCONST> 4.014192e+00
<STATE> 5
<MEAN> 10
 -3.261928e+00 5.039709e+00 1.533705e+00 1.319158e+00 3.143787e-01 2.540288e-01 2.265448e-01 4.064239e-01 1.815797e-01 -5.913853e-02
<VARIANCE> 10
 9.765026e+00 3.597476e-01 3.197126e-01 1.634126e-01 1.192223e-01 1.425767e-01 7.747153e-02 7.233202e-02 6.953840e-02 1.162988e-01
<GCONST> 2.606973e+00
<TRANSP> 6
 0.000000e+00 1.000000e+00 0.000000e+00 0.000000e+00 0.000000e+00 0.000000e+00
 0.000000e+00 9.215686e-01 7.843138e-02 0.000000e+00 0.000000e+00 0.000000e+00
 0.000000e+00 0.000000e+00 7.260274e-01 2.739726e-01 0.000000e+00 0.000000e+00
 0.000000e+00 0.000000e+00 0.000000e+00 9.250937e-01 7.490636e-02 0.000000e+00
 0.000000e+00 0.000000e+00 0.000000e+00 0.000000e+00 8.989899e-01 1.010101e-01
 0.000000e+00 0.000000e+00 0.000000e+00 0.000000e+00 0.000000e+00 0.000000e+00
<ENDHMM>
