~o
<STREAMINFO> 1 10
<VECSIZE> 10<NULLD><MFCC><DIAGC>
~h "Benjamin"
<BEGINHMM>
<NUMSTATES> 6
<STATE> 2
<MEAN> 10
 -2.421136e+00 4.951908e+00 1.732007e+00 9.576936e-01 6.945457e-01 8.155063e-01 4.082073e-01 6.743329e-01 1.419422e-01 -5.845056e-02
<VARIANCE> 10
 1.402559e+01 4.295670e-01 4.762910e-01 1.086776e-01 1.262481e-01 2.731717e-01 1.790778e-01 1.568191e-01 9.978279e-02 8.949497e-02
<GCONST> 5.555490e+00
<STATE> 3
<MEAN> 10
 1.891037e+00 3.934214e+00 7.318752e-01 1.241600e+00 5.105616e-01 1.161270e+00 5.157368e-01 9.155560e-01 5.038236e-01 2.432580e-01
<VARIANCE> 10
 3.133693e+00 1.991848e+00 1.104379e+00 3.477196e-01 2.662794e-01 7.134778e-01 1.180400e-01 1.508825e-01 1.006411e-01 1.123549e-01
<GCONST> 9.081884e+00
<STATE> 4
<MEAN> 10
 1.147622e+00 4.476281e+00 1.479511e+00 1.011503e+00 4.082343e-01 9.363939e-01 7.066461e-01 7.600988e-01 8.157784e-01 -1.231956e-01
<VARIANCE> 10
 3.551579e+00 4.712913e-01 3.893295e-01 3.108868e-01 2.672521e-01 7.755282e-02 1.471426e-01 5.933272e-02 1.079984e-01 1.523993e-01
<GCONST> 4.058033e+00
<STATE> 5
<MEAN> 10
 -4.262083e+00 4.398875e+00 2.110416e+00 1.286987e+00 7.931560e-01 8.293698e-01 6.362164e-01 5.439836e-01 2.218142e-01 4.872349e-02
<VARIANCE> 10
 5.862023e+00 4.813998e-01 1.670507e-01 7.478338e-02 1.082149e-01 7.094257e-02 6.461535e-02 4.808849e-02 3.291607e-02 3.518861e-02
<GCONST> -2.370770e+00
<TRANSP> 6
 0.000000e+00 1.000000e+00 0.000000e+00 0.000000e+00 0.000000e+00 0.000000e+00
 0.000000e+00 9.135802e-01 8.641975e-02 0.000000e+00 0.000000e+00 0.000000e+00
 0.000000e+00 0.000000e+00 8.852459e-01 1.147541e-01 0.000000e+00 0.000000e+00
 0.000000e+00 0.000000e+00 0.000000e+00 9.302326e-01 6.976744e-02 0.000000e+00
 0.000000e+00 0.000000e+00 0.000000e+00 0.000000e+00 8.793104e-01 1.206896e-01
 0.000000e+00 0.000000e+00 0.000000e+00 0.000000e+00 0.000000e+00 0.000000e+00
<ENDHMM>
