~o
<STREAMINFO> 1 10
<VECSIZE> 10<NULLD><MFCC><DIAGC>
~h "Brennan"
<BEGINHMM>
<NUMSTATES> 6
<STATE> 2
<MEAN> 10
 -6.174971e+00 4.746662e+00 1.993723e+00 1.043436e+00 5.498443e-01 6.119699e-01 2.753494e-01 3.164055e-01 2.021303e-01 8.936427e-02
<VARIANCE> 10
 4.494594e+00 4.193371e-01 3.536199e-01 9.587115e-02 7.268380e-02 4.512908e-02 4.625722e-02 3.447548e-02 2.492058e-02 2.191721e-02
<GCONST> -4.045170e+00
<STATE> 3
<MEAN> 10
 -8.944993e-01 5.868528e+00 2.489723e+00 9.407456e-01 3.028761e-01 2.400189e-01 2.033555e-01 1.058027e+00 1.911126e-01 -1.789338e-01
<VARIANCE> 10
 1.494250e+00 7.793135e-01 4.206639e-01 2.637464e-01 1.392434e-01 4.276876e-01 2.797128e-01 1.588164e-01 1.606100e-01 1.394298e-01
<GCONST> 6.598502e+00
<STATE> 4
<MEAN> 10
 2.350860e+00 4.590639e+00 1.586189e+00 1.392051e+00 -1.665778e-01 2.130526e-01 2.346853e-01 7.181942e-01 3.578154e-01 1.835626e-01
<VARIANCE> 10
 1.005209e+00 2.823054e-01 3.125970e-01 4.025433e-01 1.567355e-01 1.891156e-01 1.067151e-01 6.966631e-02 1.160088e-01 1.707518e-01
<GCONST> 2.704549e+00
<STATE> 5
<MEAN> 10
 -3.914264e+00 4.526047e+00 2.138361e+00 1.301681e+00 6.417574e-01 6.954561e-01 5.264904e-01 5.439801e-01 2.854849e-01 1.157363e-01
<VARIANCE> 10
 7.914245e+00 5.023511e-01 1.651846e-01 1.114452e-01 1.018794e-01 5.869299e-02 5.283068e-02 4.594471e-02 2.503497e-02 3.041169e-02
<GCONST> -2.556723e+00
<TRANSP> 6
 0.000000e+00 1.000000e+00 0.000000e+00 0.000000e+00 0.000000e+00 0.000000e+00
 0.000000e+00 7.888889e-01 2.111111e-01 0.000000e+00 0.000000e+00 0.000000e+00
 0.000000e+00 0.000000e+00 8.978494e-01 1.021505e-01 0.000000e+00 0.000000e+00
 0.000000e+00 0.000000e+00 0.000000e+00 9.128441e-01 8.715596e-02 0.000000e+00
 0.000000e+00 0.000000e+00 0.000000e+00 0.000000e+00 9.064040e-01 9.359606e-02
 0.000000e+00 0.000000e+00 0.000000e+00 0.000000e+00 0.000000e+00 0.000000e+00
<ENDHMM>
