~o
<STREAMINFO> 1 10
<VECSIZE> 10<NULLD><MFCC><DIAGC>
~h "Felipe"
<BEGINHMM>
<NUMSTATES> 6
<STATE> 2
<MEAN> 10
 -1.951333e+00 2.618610e+00 1.157635e+00 9.915857e-01 4.340481e-01 6.947271e-01 1.984695e-01 3.972871e-01 2.591516e-01 2.121975e-01
<VARIANCE> 10
 4.564610e+00 1.569833e+00 5.242102e-01 8.443022e-02 7.514739e-02 5.744020e-02 4.370846e-02 5.363833e-02 4.723908e-02 5.114667e-02
<GCONST> -2.962301e-01
<STATE> 3
<MEAN> 10
 3.001398e+00 4.612146e+00 7.393561e-01 9.469329e-01 9.545247e-02 1.000515e+00 4.071842e-01 8.705751e-01 7.890193e-01 9.628095e-02
<VARIANCE> 10
 1.464418e+00 4.969218e-01 3.130015e-01 2.184936e-01 1.472937e-01 9.568512e-02 1.522070e-01 9.716985e-02 6.922941e-02 1.192020e-01
<GCONST> 2.105268e+00
<STATE> 4
<MEAN> 10
 -1.435173e+00 4.587578e+00 1.189523e+00 1.108403e+00 7.784986e-02 8.424158e-01 5.520564e-01 9.130525e-01 5.386140e-01 1.588052e-01
<VARIANCE> 10
 6.423739e+00 3.420416e-01 2.554226e-01 1.222994e-01 4.151133e-02 2.409503e-01 6.618546e-02 6.676151e-02 1.255013e-01 1.115717e-01
<GCONST> 1.404427e+00
<STATE> 5
<MEAN> 10
 -5.101542e+00 4.696093e+00 1.313793e+00 9.593812e-01 3.688337e-01 5.909980e-01 2.622319e-01 4.327421e-01 2.562748e-01 1.826855e-01
<VARIANCE> 10
 3.594111e+00 4.012074e-01 3.464843e-01 9.271757e-02 7.652741e-02 6.755459e-02 6.509828e-02 3.029690e-02 4.646742e-02 4.164991e-02
<GCONST> -2.434276e+00
<TRANSP> 6
 0.000000e+00 1.000000e+00 0.000000e+00 0.000000e+00 0.000000e+00 0.000000e+00
 0.000000e+00 8.449612e-01 1.550387e-01 0.000000e+00 0.000000e+00 0.000000e+00
 0.000000e+00 0.000000e+00 9.004975e-01 9.950249e-02 0.000000e+00 0.000000e+00
 0.000000e+00 0.000000e+00 0.000000e+00 7.435898e-01 2.564103e-01 0.000000e+00
 0.000000e+00 0.000000e+00 0.000000e+00 0.000000e+00 8.780488e-01 1.219512e-01
 0.000000e+00 0.000000e+00 0.000000e+00 0.000000e+00 0.000000e+00 0.000000e+00
<ENDHMM>
