~o
<STREAMINFO> 1 10
<VECSIZE> 10<NULLD><MFCC><DIAGC>
~h "Harry"
<BEGINHMM>
<NUMSTATES> 6
<STATE> 2
<MEAN> 10
 -2.785537e+00 4.769057e+00 1.015419e+00 1.187628e+00 3.909860e-01 6.194240e-01 -5.295580e-02 2.017777e-01 1.100959e-01 -2.213580e-01
<VARIANCE> 10
 1.522779e+01 4.859508e-01 9.996978e-01 2.006200e-01 1.793122e-01 8.960279e-02 1.927948e-01 9.461195e-02 7.913136e-02 1.836669e-01
<GCONST> 6.407229e+00
<STATE> 3
<MEAN> 10
 4.480472e-01 5.622970e+00 2.347085e+00 1.253711e+00 3.608861e-01 2.332218e-01 -1.004749e-01 6.890295e-01 2.364941e-01 -7.959764e-02
<VARIANCE> 10
 2.442173e+00 5.679116e-01 4.872490e-01 2.123956e-01 1.614354e-01 1.185205e-01 1.822786e-01 1.261021e-01 2.233977e-01 1.087858e-01
<GCONST> 4.991205e+00
<STATE> 4
<MEAN> 10
 5.061952e-01 4.559293e+00 8.549528e-01 5.551255e-01 3.736016e-01 1.204400e+00 6.245795e-01 1.061151e+00 1.009196e+00 -1.505702e-01
<VARIANCE> 10
 6.246980e+00 4.214741e-01 3.207195e-01 2.726249e-01 1.860810e-01 1.681638e-01 6.888030e-02 8.199913e-02 1.014984e-01 1.235666e-01
<GCONST> 3.890517e+00
<STATE> 5
<MEAN> 10
 -6.007014e+00 4.921454e+00 1.758815e+00 8.412657e-01 4.415067e-01 6.968943e-01 4.602126e-01 4.082303e-01 3.001005e-01 5.628951e-02
<VARIANCE> 10
 3.301632e+00 3.301120e-01 2.744173e-01 9.240331e-02 8.815251e-02 6.345099e-02 4.860752e-02 3.557733e-02 5.308684e-02 3.608486e-02
<GCONST> -3.013742e+00
<TRANSP> 6
 0.000000e+00 1.000000e+00 0.000000e+00 0.000000e+00 0.000000e+00 0.000000e+00
 0.000000e+00 8.701299e-01 1.298701e-01 0.000000e+00 0.000000e+00 0.000000e+00
 0.000000e+00 0.000000e+00 9.043062e-01 9.569378e-02 0.000000e+00 0.000000e+00
 0.000000e+00 0.000000e+00 0.000000e+00 8.816568e-01 1.183432e-01 0.000000e+00
 0.000000e+00 0.000000e+00 0.000000e+00 0.000000e+00 8.639456e-01 1.360544e-01
 0.000000e+00 0.000000e+00 0.000000e+00 0.000000e+00 0.000000e+00 0.000000e+00
<ENDHMM>
