~o
<STREAMINFO> 1 10
<VECSIZE> 10<NULLD><MFCC><DIAGC>
~h "Hemal"
<BEGINHMM>
<NUMSTATES> 6
<STATE> 2
<MEAN> 10
 -2.130105e+00 5.201452e+00 1.121911e+00 9.372874e-01 2.755232e-01 2.340387e-01 3.430114e-01 4.200525e-01 1.868603e-01 -2.111813e-03
<VARIANCE> 10
 1.837827e+01 3.761582e-01 7.114735e-01 2.448463e-01 1.483319e-01 1.028504e-01 7.070302e-02 7.894658e-02 7.506759e-02 1.102987e-01
<GCONST> 4.399690e+00
<STATE> 3
<MEAN> 10
 1.989573e-01 5.008597e+00 2.051012e+00 1.139364e+00 5.023862e-01 8.944354e-01 1.950722e-01 7.850376e-01 -1.433523e-01 -1.018887e-01
<VARIANCE> 10
 2.392050e+00 5.012162e-01 2.749750e-01 2.055137e-01 1.586062e-01 3.415463e-01 1.281811e-01 1.022435e-01 1.181382e-01 1.186098e-01
<GCONST> 4.168757e+00
<STATE> 4
<MEAN> 10
 -2.927350e-01 5.267101e+00 2.034840e+00 1.275584e+00 1.149338e+00 9.145876e-01 -2.983480e-01 1.414762e-01 -5.167512e-01 -3.497898e-01
<VARIANCE> 10
 3.546515e+00 4.001036e-01 2.702698e-01 1.598143e-01 9.750955e-02 1.010412e-01 8.730258e-02 8.413230e-02 5.101997e-02 8.703719e-02
<GCONST> 6.358984e-01
<STATE> 5
<MEAN> 10
 -5.680411e+00 4.749688e+00 2.243561e+00 1.264711e+00 7.494062e-01 6.375989e-01 3.563621e-01 3.006375e-01 1.265206e-01 6.097830e-02
<VARIANCE> 10
 4.731715e+00 4.003815e-01 1.515670e-01 1.066503e-01 1.181568e-01 6.222453e-02 3.471412e-02 3.221866e-02 2.672301e-02 2.209399e-02
<GCONST> -4.250453e+00
<TRANSP> 6
 0.000000e+00 1.000000e+00 0.000000e+00 0.000000e+00 0.000000e+00 0.000000e+00
 0.000000e+00 8.642857e-01 1.357143e-01 0.000000e+00 0.000000e+00 0.000000e+00
 0.000000e+00 0.000000e+00 8.661972e-01 1.338028e-01 0.000000e+00 0.000000e+00
 0.000000e+00 0.000000e+00 0.000000e+00 8.812500e-01 1.187500e-01 0.000000e+00
 0.000000e+00 0.000000e+00 0.000000e+00 0.000000e+00 8.549618e-01 1.450382e-01
 0.000000e+00 0.000000e+00 0.000000e+00 0.000000e+00 0.000000e+00 0.000000e+00
<ENDHMM>
