~o
<STREAMINFO> 1 10
<VECSIZE> 10<NULLD><MFCC><DIAGC>
~h "Hugo"
<BEGINHMM>
<NUMSTATES> 6
<STATE> 2
<MEAN> 10
 -4.874241e+00 4.651880e+00 1.645130e+00 1.097383e+00 5.015681e-01 5.742783e-01 1.601954e-01 2.749490e-01 1.382903e-01 1.689584e-01
<VARIANCE> 10
 1.160843e+01 4.109795e-01 6.719528e-01 1.324174e-01 1.637361e-01 1.732905e-01 2.064238e-01 8.258902e-02 5.363019e-02 7.052073e-02
<GCONST> 4.310446e+00
<STATE> 3
<MEAN> 10
 1.239754e+00 4.644405e+00 1.543380e+00 1.546827e+00 1.648691e+00 1.215959e+00 -5.885339e-01 7.971532e-02 -3.644971e-01 -2.562506e-01
<VARIANCE> 10
 3.251441e+00 3.769701e-01 2.839860e-01 1.106218e-01 1.858527e-01 1.191535e-01 1.956943e-01 7.264187e-02 1.069926e-01 9.954488e-02
<GCONST> 2.516110e+00
<STATE> 4
<MEAN> 10
 -4.855550e+00 4.740423e+00 1.842758e+00 1.292346e+00 9.656953e-01 8.444932e-01 -1.034230e-01 2.466826e-01 1.039230e-01 -7.907083e-03
<VARIANCE> 10
 2.854283e+00 3.495212e-01 1.681394e-01 5.848231e-02 1.300964e-01 8.334260e-02 1.719104e-01 5.025533e-02 4.409829e-02 6.377973e-02
<GCONST> -1.394944e+00
<STATE> 5
<MEAN> 10
 -5.089854e+00 4.195103e+00 1.604870e+00 1.163431e+00 4.356295e-01 5.451885e-01 1.650755e-01 3.166004e-01 2.161618e-01 1.492956e-01
<VARIANCE> 10
 8.533019e+00 1.729984e+00 5.881035e-01 7.610875e-02 9.051310e-02 5.027735e-02 1.029038e-01 2.797637e-02 3.251407e-02 2.563752e-02
<GCONST> -3.682168e-01
<TRANSP> 6
 0.000000e+00 1.000000e+00 0.000000e+00 0.000000e+00 0.000000e+00 0.000000e+00
 0.000000e+00 8.264463e-01 1.735537e-01 0.000000e+00 0.000000e+00 0.000000e+00
 0.000000e+00 0.000000e+00 8.600000e-01 1.400000e-01 0.000000e+00 0.000000e+00
 0.000000e+00 0.000000e+00 0.000000e+00 8.173913e-01 1.826087e-01 0.000000e+00
 0.000000e+00 0.000000e+00 0.000000e+00 0.000000e+00 8.306451e-01 1.693548e-01
 0.000000e+00 0.000000e+00 0.000000e+00 0.000000e+00 0.000000e+00 0.000000e+00
<ENDHMM>
