~o
<STREAMINFO> 1 10
<VECSIZE> 10<NULLD><MFCC><DIAGC>
~h "Max"
<BEGINHMM>
<NUMSTATES> 6
<STATE> 2
<MEAN> 10
 -3.387723e+00 4.916220e+00 1.937291e+00 7.912941e-01 4.564074e-01 1.067482e+00 6.801894e-01 6.622338e-01 2.280611e-01 3.670921e-02
<VARIANCE> 10
 1.073139e+01 4.711946e-01 2.497633e-01 1.368375e-01 7.063346e-02 2.273552e-01 1.234823e-01 1.154592e-01 5.774457e-02 6.535847e-02
<GCONST> 2.661676e+00
<STATE> 3
<MEAN> 10
 2.380737e+00 4.948611e+00 9.836949e-01 8.017392e-01 -5.090106e-01 2.808918e-01 4.753332e-01 5.626033e-01 1.236995e-01 2.323409e-01
<VARIANCE> 10
 5.762913e+00 2.912658e-01 4.685594e-01 1.964643e-01 1.295025e-01 1.660018e-01 8.744466e-02 1.370401e-01 1.036711e-01 1.079557e-01
<GCONST> 3.754722e+00
<STATE> 4
<MEAN> 10
 -3.516119e+00 4.379595e+00 1.240410e+00 9.870659e-01 5.251866e-02 2.702233e-01 1.616868e-01 5.955400e-01 3.017268e-01 9.522505e-02
<VARIANCE> 10
 3.669106e+00 8.779078e-01 2.439140e-01 1.699386e-01 1.510987e-01 1.560372e-01 1.401618e-01 8.351324e-02 7.782980e-02 6.851562e-02
<GCONST> 2.936134e+00
<STATE> 5
<MEAN> 10
 2.812449e-01 1.038189e+00 5.812820e-01 1.397545e+00 7.618263e-02 7.163435e-01 1.430729e-01 3.824492e-01 2.253599e-01 2.674950e-01
<VARIANCE> 10
 5.472927e+00 1.442621e+00 2.415915e-01 1.453923e-01 7.458945e-02 5.869863e-02 6.322531e-02 5.501013e-02 6.596858e-02 6.460438e-02
<GCONST> 5.457840e-01
<TRANSP> 6
 0.000000e+00 1.000000e+00 0.000000e+00 0.000000e+00 0.000000e+00 0.000000e+00
 0.000000e+00 9.254902e-01 7.450981e-02 0.000000e+00 0.000000e+00 0.000000e+00
 0.000000e+00 0.000000e+00 8.671328e-01 1.328671e-01 0.000000e+00 0.000000e+00
 0.000000e+00 0.000000e+00 0.000000e+00 8.303571e-01 1.696429e-01 0.000000e+00
 0.000000e+00 0.000000e+00 0.000000e+00 0.000000e+00 9.099526e-01 9.004739e-02
 0.000000e+00 0.000000e+00 0.000000e+00 0.000000e+00 0.000000e+00 0.000000e+00
<ENDHMM>
