~o
<STREAMINFO> 1 10
<VECSIZE> 10<NULLD><MFCC><DIAGC>
~h "Nathaniel"
<BEGINHMM>
<NUMSTATES> 6
<STATE> 2
<MEAN> 10
 -3.916320e+00 4.691575e+00 1.882089e+00 1.306334e+00 6.654322e-01 5.389150e-01 4.281881e-01 4.815567e-01 -1.037803e-01 1.633047e-01
<VARIANCE> 10
 1.192925e+01 5.354158e-01 3.405215e-01 2.224967e-01 1.584030e-01 1.237527e-01 1.016768e-01 1.036324e-01 1.651589e-01 1.054309e-01
<GCONST> 5.117439e+00
<STATE> 3
<MEAN> 10
 1.586667e+00 1.132697e+00 2.535705e-01 1.625046e+00 1.673823e-01 7.350447e-01 2.558044e-01 1.850274e-01 1.385602e-01 3.936452e-01
<VARIANCE> 10
 1.058293e+00 6.679307e-01 2.113714e-01 1.381695e-01 8.057529e-02 5.339964e-02 4.876701e-02 5.179936e-02 7.166381e-02 6.952336e-02
<GCONST> -2.233009e+00
<STATE> 4
<MEAN> 10
 1.761653e+00 4.866722e+00 1.568135e+00 1.276422e+00 5.078444e-01 6.565227e-01 2.310081e-01 3.983771e-01 1.937432e-01 -2.999001e-01
<VARIANCE> 10
 2.372037e+00 3.893999e-01 3.192584e-01 3.365295e-01 1.434483e-01 1.899106e-01 1.862788e-01 1.220974e-01 4.042359e-01 1.103491e-01
<GCONST> 5.572254e+00
<STATE> 5
<MEAN> 10
 -5.116144e+00 5.028087e+00 2.063975e+00 1.170987e+00 6.487200e-01 6.570224e-01 2.004465e-01 2.549197e-01 8.282452e-03 -9.802321e-03
<VARIANCE> 10
 4.902060e+00 4.965169e-01 2.582799e-01 7.936835e-02 7.381223e-02 5.782219e-02 6.871824e-02 4.584487e-02 6.544530e-02 5.474704e-02
<GCONST> -1.467499e+00
<TRANSP> 6
 0.000000e+00 1.000000e+00 0.000000e+00 0.000000e+00 0.000000e+00 0.000000e+00
 0.000000e+00 9.111111e-01 8.888888e-02 0.000000e+00 0.000000e+00 0.000000e+00
 0.000000e+00 0.000000e+00 8.529412e-01 1.470588e-01 0.000000e+00 0.000000e+00
 0.000000e+00 0.000000e+00 0.000000e+00 9.481865e-01 5.181347e-02 0.000000e+00
 0.000000e+00 0.000000e+00 0.000000e+00 0.000000e+00 9.024390e-01 9.756098e-02
 0.000000e+00 0.000000e+00 0.000000e+00 0.000000e+00 0.000000e+00 0.000000e+00
<ENDHMM>
