~o
<STREAMINFO> 1 10
<VECSIZE> 10<NULLD><MFCC><DIAGC>
~h "Owen"
<BEGINHMM>
<NUMSTATES> 6
<STATE> 2
<MEAN> 10
 -2.613631e+00 4.846984e+00 1.643633e+00 1.630317e+00 1.090947e+00 9.020984e-01 -1.495003e-01 3.411655e-01 -3.103233e-01 -2.453531e-01
<VARIANCE> 10
 1.558049e+01 3.967511e-01 4.262969e-01 3.492455e-01 4.534681e-01 3.333324e-01 2.366851e-01 9.946196e-02 2.642979e-01 2.109150e-01
<GCONST> 9.770314e+00
<STATE> 3
<MEAN> 10
 1.199719e-01 3.886049e+00 2.101669e+00 1.608467e+00 1.384266e+00 1.319090e+00 2.494607e-01 3.578771e-01 -3.356376e-02 1.668091e-01
<VARIANCE> 10
 3.400411e+00 3.259572e-01 1.078687e-01 5.368038e-02 9.099737e-02 1.352523e-01 7.033744e-02 6.512798e-02 6.437296e-02 5.586109e-02
<GCONST> -2.081209e+00
<STATE> 4
<MEAN> 10
 1.188126e+00 4.497888e+00 1.421206e+00 1.204779e+00 9.651340e-01 1.095604e+00 2.747131e-02 3.533432e-01 -4.165309e-02 -7.003830e-02
<VARIANCE> 10
 2.780245e+00 4.774321e-01 2.477649e-01 2.158191e-01 2.216918e-01 1.166890e-01 1.094281e-01 9.034380e-02 1.452834e-01 1.301572e-01
<GCONST> 3.493974e+00
<STATE> 5
<MEAN> 10
 -5.531393e+00 4.757720e+00 1.956230e+00 1.101919e+00 5.698162e-01 6.773726e-01 3.522149e-01 3.795399e-01 1.977676e-01 1.138094e-01
<VARIANCE> 10
 4.165967e+00 3.687139e-01 1.542719e-01 8.922952e-02 6.539536e-02 7.221184e-02 4.792831e-02 5.365389e-02 4.194540e-02 3.058954e-02
<GCONST> -3.454785e+00
<TRANSP> 6
 0.000000e+00 1.000000e+00 0.000000e+00 0.000000e+00 0.000000e+00 0.000000e+00
 0.000000e+00 8.875740e-01 1.124260e-01 0.000000e+00 0.000000e+00 0.000000e+00
 0.000000e+00 0.000000e+00 8.376068e-01 1.623932e-01 0.000000e+00 0.000000e+00
 0.000000e+00 0.000000e+00 0.000000e+00 8.908046e-01 1.091954e-01 0.000000e+00
 0.000000e+00 0.000000e+00 0.000000e+00 0.000000e+00 8.789809e-01 1.210191e-01
 0.000000e+00 0.000000e+00 0.000000e+00 0.000000e+00 0.000000e+00 0.000000e+00
<ENDHMM>
