~o
<STREAMINFO> 1 10
<VECSIZE> 10<NULLD><MFCC><DIAGC>
~h "Ruaridh"
<BEGINHMM>
<NUMSTATES> 6
<STATE> 2
<MEAN> 10
 -4.966323e+00 4.965358e+00 2.446056e+00 1.285854e+00 6.028802e-01 4.891673e-01 3.486465e-01 3.752781e-01 2.889150e-01 1.656372e-01
<VARIANCE> 10
 7.702677e+00 5.583128e-01 2.675025e-01 1.009530e-01 6.022399e-02 3.745637e-02 2.447212e-02 2.961767e-02 2.946864e-02 1.995005e-02
<GCONST> -4.537045e+00
<STATE> 3
<MEAN> 10
 2.927996e-01 6.043165e+00 2.199123e+00 1.171439e+00 5.644385e-01 2.071500e-01 -9.621401e-02 6.124061e-01 2.136447e-01 -2.359070e-01
<VARIANCE> 10
 2.966686e+00 9.318457e-01 3.898977e-01 9.392565e-02 1.354346e-01 1.917540e-01 1.479253e-01 1.104471e-01 1.049190e-01 1.485036e-01
<GCONST> 4.161720e+00
<STATE> 4
<MEAN> 10
 3.313963e-01 4.426301e+00 8.350314e-01 5.380281e-01 4.938958e-01 1.188858e+00 6.836937e-01 9.914330e-01 9.003185e-01 -4.724097e-02
<VARIANCE> 10
 4.523227e+00 5.611013e-01 3.182393e-01 2.559591e-01 1.451194e-01 1.366311e-01 9.153295e-02 1.490037e-01 1.176298e-01 8.817644e-02
<GCONST> 4.018317e+00
<STATE> 5
<MEAN> 10
 -6.234998e+00 4.931106e+00 1.758704e+00 8.736663e-01 4.820343e-01 7.269696e-01 4.570308e-01 3.951162e-01 2.596798e-01 4.401927e-02
<VARIANCE> 10
 2.459475e+00 4.026725e-01 3.449928e-01 6.430862e-02 4.804466e-02 5.913901e-02 4.220917e-02 6.040070e-02 6.067597e-02 5.270547e-02
<GCONST> -3.019811e+00
<TRANSP> 6
 0.000000e+00 1.000000e+00 0.000000e+00 0.000000e+00 0.000000e+00 0.000000e+00
 0.000000e+00 8.734177e-01 1.265823e-01 0.000000e+00 0.000000e+00 0.000000e+00
 0.000000e+00 0.000000e+00 9.312715e-01 6.872851e-02 0.000000e+00 0.000000e+00
 0.000000e+00 0.000000e+00 0.000000e+00 8.850574e-01 1.149425e-01 0.000000e+00
 0.000000e+00 0.000000e+00 0.000000e+00 0.000000e+00 8.305085e-01 1.694915e-01
 0.000000e+00 0.000000e+00 0.000000e+00 0.000000e+00 0.000000e+00 0.000000e+00
<ENDHMM>
