~o
<STREAMINFO> 1 10
<VECSIZE> 10<NULLD><MFCC><DIAGC>
~h "Ruby"
<BEGINHMM>
<NUMSTATES> 6
<STATE> 2
<MEAN> 10
 -5.381655e+00 4.921733e+00 2.372816e+00 1.188712e+00 5.692610e-01 4.790550e-01 3.437473e-01 4.268782e-01 3.106947e-01 1.927214e-01
<VARIANCE> 10
 8.446182e+00 3.723447e-01 2.188936e-01 8.759573e-02 5.304159e-02 3.211822e-02 2.575311e-02 4.194048e-02 3.346736e-02 2.575726e-02
<GCONST> -4.691580e+00
<STATE> 3
<MEAN> 10
 -1.001824e-01 4.841709e+00 1.981416e+00 1.272729e+00 1.120042e+00 1.039100e+00 1.096892e-01 3.388277e-01 1.879842e-01 8.665276e-02
<VARIANCE> 10
 5.373270e+00 6.683673e-01 2.612482e-01 9.001599e-02 1.935314e-01 2.457431e-01 2.335965e-01 1.300731e-01 8.912613e-02 8.740889e-02
<GCONST> 4.512774e+00
<STATE> 4
<MEAN> 10
 1.707232e+00 4.108212e+00 7.885953e-01 4.036636e-01 6.954970e-01 1.452054e+00 8.933558e-01 8.383844e-01 1.286268e+00 -9.572220e-02
<VARIANCE> 10
 4.658033e+00 3.847660e-01 2.405997e-01 1.653080e-01 1.397202e-01 8.902074e-02 6.936099e-02 8.292037e-02 1.189457e-01 8.857471e-02
<GCONST> 1.639375e+00
<STATE> 5
<MEAN> 10
 -5.616292e+00 4.743838e+00 1.783670e+00 8.894977e-01 5.035878e-01 8.010740e-01 4.744375e-01 3.622199e-01 4.269376e-01 5.299168e-02
<VARIANCE> 10
 3.685389e+00 3.543369e-01 2.104401e-01 6.089970e-02 5.425524e-02 8.902515e-02 4.946278e-02 4.502493e-02 6.914901e-02 6.272032e-02
<GCONST> -2.591968e+00
<TRANSP> 6
 0.000000e+00 1.000000e+00 0.000000e+00 0.000000e+00 0.000000e+00 0.000000e+00
 0.000000e+00 8.507463e-01 1.492537e-01 0.000000e+00 0.000000e+00 0.000000e+00
 0.000000e+00 0.000000e+00 8.984771e-01 1.015228e-01 0.000000e+00 0.000000e+00
 0.000000e+00 0.000000e+00 0.000000e+00 8.984771e-01 1.015228e-01 0.000000e+00
 0.000000e+00 0.000000e+00 0.000000e+00 0.000000e+00 8.709677e-01 1.290323e-01
 0.000000e+00 0.000000e+00 0.000000e+00 0.000000e+00 0.000000e+00 0.000000e+00
<ENDHMM>
