~o
<STREAMINFO> 1 10
<VECSIZE> 10<NULLD><MFCC><DIAGC>
~h "Sarah"
<BEGINHMM>
<NUMSTATES> 6
<STATE> 2
<MEAN> 10
 2.243319e-01 1.552782e+00 2.963378e-01 1.381248e+00 9.769750e-02 7.566741e-01 3.203440e-01 2.549536e-01 2.584420e-01 2.925209e-01
<VARIANCE> 10
 4.699670e+00 1.587234e+00 4.044162e-01 1.041573e-01 8.425021e-02 4.667990e-02 5.826328e-02 4.610253e-02 5.151065e-02 5.298493e-02
<GCONST> -1.406987e-01
<STATE> 3
<MEAN> 10
 1.730689e+00 5.861930e+00 1.936939e+00 8.832790e-01 -6.748839e-03 9.170939e-02 6.911573e-02 8.276111e-01 2.560628e-01 -1.136426e-01
<VARIANCE> 10
 3.132168e+00 5.967301e-01 9.092012e-01 1.491475e-01 1.424405e-01 1.321103e-01 1.454079e-01 1.122930e-01 6.485173e-02 1.243417e-01
<GCONST> 4.098016e+00
<STATE> 4
<MEAN> 10
 -1.214140e+00 5.655474e+00 1.408386e+00 1.383227e+00 5.163072e-01 8.011108e-02 1.449042e-01 5.508521e-01 -2.335280e-01 -3.464144e-01
<VARIANCE> 10
 5.072332e+00 9.511222e-01 3.778321e-01 9.022788e-02 1.183990e-01 2.095383e-01 9.097228e-02 1.085241e-01 1.176149e-01 1.281300e-01
<GCONST> 4.064158e+00
<STATE> 5
<MEAN> 10
 -6.518042e+00 5.062057e+00 2.124483e+00 1.012315e+00 4.793528e-01 4.225691e-01 3.213524e-01 2.467347e-01 8.023723e-02 3.134563e-02
<VARIANCE> 10
 2.205229e+00 3.175947e-01 1.202653e-01 6.655587e-02 4.573133e-02 4.978153e-02 2.968291e-02 2.333757e-02 3.179896e-02 3.109713e-02
<GCONST> -7.084065e+00
<TRANSP> 6
 0.000000e+00 1.000000e+00 0.000000e+00 0.000000e+00 0.000000e+00 0.000000e+00
 0.000000e+00 8.550724e-01 1.449275e-01 0.000000e+00 0.000000e+00 0.000000e+00
 0.000000e+00 0.000000e+00 9.176955e-01 8.230452e-02 0.000000e+00 0.000000e+00
 0.000000e+00 0.000000e+00 0.000000e+00 8.876405e-01 1.123595e-01 0.000000e+00
 0.000000e+00 0.000000e+00 0.000000e+00 0.000000e+00 8.734177e-01 1.265823e-01
 0.000000e+00 0.000000e+00 0.000000e+00 0.000000e+00 0.000000e+00 0.000000e+00
<ENDHMM>
