~o
<STREAMINFO> 1 10
<VECSIZE> 10<NULLD><MFCC><DIAGC>
~h "silence"
<BEGINHMM>
<NUMSTATES> 6
<STATE> 2
<MEAN> 10
 -5.604586e+00 4.203222e+00 1.639973e+00 1.202019e+00 4.702849e-01 6.320862e-01 2.410211e-01 3.495913e-01 2.139100e-01 1.519795e-01
<VARIANCE> 10
 5.979209e+00 1.272224e+00 5.616653e-01 1.465967e-01 1.526870e-01 7.972513e-02 8.463102e-02 6.127532e-02 5.346249e-02 5.200050e-02
<GCONST> 2.355259e+00
<STATE> 3
<MEAN> 10
 -7.586928e+00 5.001940e+00 2.274170e+00 9.862909e-01 4.514940e-01 4.548465e-01 3.268012e-01 2.862771e-01 2.101380e-01 1.468422e-01
<VARIANCE> 10
 7.632588e-01 1.893449e-01 8.001731e-02 3.975772e-02 3.501883e-02 2.846213e-02 2.505445e-02 2.402136e-02 2.141167e-02 2.171375e-02
<GCONST> -1.130623e+01
<STATE> 4
<MEAN> 10
 -6.497732e+00 4.859019e+00 1.815879e+00 1.085967e+00 4.717826e-01 5.937965e-01 2.791964e-01 2.834743e-01 2.119239e-01 1.122111e-01
<VARIANCE> 10
 1.302244e+00 3.108121e-01 2.543273e-01 1.054808e-01 8.264512e-02 6.209306e-02 5.178634e-02 4.009037e-02 3.838852e-02 4.013137e-02
<GCONST> -4.069230e+00
<STATE> 5
<MEAN> 10
 -3.293887e+00 3.727427e+00 8.042386e-01 1.242123e+00 1.632153e-01 6.921947e-01 1.907222e-01 3.757094e-01 1.261583e-01 1.518135e-01
<VARIANCE> 10
 2.806990e+00 5.572945e-01 3.556298e-01 8.999567e-02 7.491369e-02 5.423111e-02 4.829289e-02 3.911918e-02 3.975311e-02 3.818740e-02
<GCONST> -2.883486e+00
<TRANSP> 6
 0.000000e+00 1.000000e+00 0.000000e+00 0.000000e+00 0.000000e+00 0.000000e+00
 0.000000e+00 6.966618e-01 3.033382e-01 0.000000e+00 0.000000e+00 0.000000e+00
 0.000000e+00 0.000000e+00 9.355336e-01 6.446638e-02 0.000000e+00 0.000000e+00
 0.000000e+00 0.000000e+00 0.000000e+00 8.586405e-01 1.413595e-01 0.000000e+00
 0.000000e+00 0.000000e+00 0.000000e+00 0.000000e+00 8.489339e-01 1.510661e-01
 0.000000e+00 0.000000e+00 0.000000e+00 0.000000e+00 0.000000e+00 0.000000e+00
<ENDHMM>
