~o
<STREAMINFO> 1 10
<VECSIZE> 10<NULLD><MFCC><DIAGC>
~h "Sophie"
<BEGINHMM>
<NUMSTATES> 6
<STATE> 2
<MEAN> 10
 -6.455648e-02 1.772353e+00 8.108473e-02 1.767626e+00 -3.132350e-03 5.908272e-01 3.167951e-01 1.445015e-01 2.611885e-01 2.918138e-01
<VARIANCE> 10
 1.172795e+01 2.570193e+00 9.464993e-01 1.585175e-01 1.927915e-01 7.556887e-02 5.900387e-02 5.166309e-02 5.504800e-02 4.779851e-02
<GCONST> 3.925520e+00
<STATE> 3
<MEAN> 10
 1.375532e+00 4.957220e+00 1.575411e+00 1.531433e+00 1.035306e+00 1.060685e+00 1.471128e-01 9.103688e-02 -4.519394e-01 -4.922162e-01
<VARIANCE> 10
 2.020672e+00 4.763386e-01 3.165938e-01 9.526548e-02 9.389906e-02 9.185371e-02 1.448706e-01 7.286308e-02 7.407638e-02 1.183040e-01
<GCONST> 7.980151e-01
<STATE> 4
<MEAN> 10
 4.521273e-02 3.019706e+00 1.118000e+00 7.008895e-01 6.642565e-01 1.079618e+00 5.914060e-01 5.263547e-01 7.543273e-01 7.799625e-02
<VARIANCE> 10
 3.336807e+00 1.672719e+00 2.744179e-01 2.093280e-01 1.492302e-01 2.359769e-01 1.745582e-01 9.290282e-02 3.265343e-01 9.808723e-02
<GCONST> 6.332177e+00
<STATE> 5
<MEAN> 10
 -6.467397e+00 4.822991e+00 1.920735e+00 8.155291e-01 5.316105e-01 7.748459e-01 4.184225e-01 2.780621e-01 2.533727e-01 3.635775e-02
<VARIANCE> 10
 2.015514e+00 2.744035e-01 1.435064e-01 4.816813e-02 3.796754e-02 7.947619e-02 3.911885e-02 3.143466e-02 3.987205e-02 3.603028e-02
<GCONST> -6.237737e+00
<TRANSP> 6
 0.000000e+00 1.000000e+00 0.000000e+00 0.000000e+00 0.000000e+00 0.000000e+00
 0.000000e+00 8.947368e-01 1.052632e-01 0.000000e+00 0.000000e+00 0.000000e+00
 0.000000e+00 0.000000e+00 8.657718e-01 1.342282e-01 0.000000e+00 0.000000e+00
 0.000000e+00 0.000000e+00 0.000000e+00 9.392097e-01 6.079028e-02 0.000000e+00
 0.000000e+00 0.000000e+00 0.000000e+00 0.000000e+00 8.305085e-01 1.694915e-01
 0.000000e+00 0.000000e+00 0.000000e+00 0.000000e+00 0.000000e+00 0.000000e+00
<ENDHMM>
