~o
<STREAMINFO> 1 10
<VECSIZE> 10<NULLD><MFCC><DIAGC>
~h "Vav"
<BEGINHMM>
<NUMSTATES> 6
<STATE> 2
<MEAN> 10
 -5.158218e+00 4.929303e+00 2.145678e+00 1.035980e+00 5.787762e-01 9.210059e-01 5.761636e-01 5.916566e-01 2.161638e-01 1.668721e-01
<VARIANCE> 10
 5.232779e+00 6.245024e-01 2.883573e-01 9.650443e-02 7.489106e-02 2.043350e-01 1.025835e-01 7.267309e-02 4.439303e-02 3.815827e-02
<GCONST> 5.219269e-01
<STATE> 3
<MEAN> 10
 2.904080e+00 4.839082e+00 6.037633e-01 3.767752e-01 2.073777e-01 1.052071e+00 7.936509e-01 8.673043e-01 8.818683e-01 9.433544e-02
<VARIANCE> 10
 1.987702e+00 3.604721e-01 3.789194e-01 1.863151e-01 1.367796e-01 9.092408e-02 9.358367e-02 6.451187e-02 1.202083e-01 1.179277e-01
<GCONST> 1.641530e+00
<STATE> 4
<MEAN> 10
 -2.793998e+00 5.138015e+00 1.643095e+00 9.107719e-01 3.924624e-01 9.396483e-01 6.735075e-01 8.035822e-01 4.456269e-01 2.514416e-01
<VARIANCE> 10
 2.305916e+00 7.813693e-01 2.164137e-01 1.203846e-01 1.321088e-01 4.955881e-02 6.077800e-02 5.844545e-02 6.079414e-02 4.649783e-02
<GCONST> -1.217611e+00
<STATE> 5
<MEAN> 10
 -6.614699e+00 5.072288e+00 2.045038e+00 9.441419e-01 5.388953e-01 6.467285e-01 4.585187e-01 4.298261e-01 2.342183e-01 1.753712e-01
<VARIANCE> 10
 1.591553e+00 3.694349e-01 2.441204e-01 6.525233e-02 6.086275e-02 5.846146e-02 7.499839e-02 4.058561e-02 2.493231e-02 2.553814e-02
<GCONST> -5.084211e+00
<TRANSP> 6
 0.000000e+00 1.000000e+00 0.000000e+00 0.000000e+00 0.000000e+00 0.000000e+00
 0.000000e+00 9.000000e-01 9.999999e-02 0.000000e+00 0.000000e+00 0.000000e+00
 0.000000e+00 0.000000e+00 9.058296e-01 9.417041e-02 0.000000e+00 0.000000e+00
 0.000000e+00 0.000000e+00 0.000000e+00 8.157895e-01 1.842105e-01 0.000000e+00
 0.000000e+00 0.000000e+00 0.000000e+00 0.000000e+00 8.653846e-01 1.346154e-01
 0.000000e+00 0.000000e+00 0.000000e+00 0.000000e+00 0.000000e+00 0.000000e+00
<ENDHMM>
