~o
<STREAMINFO> 1 10
<VECSIZE> 10<NULLD><MFCC><DIAGC>
~h "Yan"
<BEGINHMM>
<NUMSTATES> 6
<STATE> 2
<MEAN> 10
 -5.585383e+00 4.291874e+00 1.966004e+00 1.596311e+00 5.977070e-01 6.748303e-01 4.056668e-01 4.304664e-01 4.143241e-01 7.101302e-02
<VARIANCE> 10
 6.577468e+00 1.177734e+00 4.492785e-01 5.329969e-01 1.491973e-01 1.231197e-01 6.412927e-02 6.546619e-02 8.165292e-02 6.604690e-02
<GCONST> 4.303835e+00
<STATE> 3
<MEAN> 10
 2.238049e+00 4.213892e+00 7.081324e-01 1.177317e+00 -8.211911e-02 1.164562e+00 8.756039e-01 1.001320e+00 8.376914e-01 -1.342832e-01
<VARIANCE> 10
 2.579566e+00 4.833395e-01 3.630130e-01 3.503962e-01 3.883204e-01 1.435510e-01 9.484829e-02 8.662345e-02 6.658861e-02 8.074281e-02
<GCONST> 3.622989e+00
<STATE> 4
<MEAN> 10
 -4.067163e+00 4.758489e+00 1.798568e+00 1.048788e+00 2.173980e-01 9.656017e-01 8.535553e-01 8.301827e-01 2.435163e-01 -9.641857e-02
<VARIANCE> 10
 2.665226e+00 4.573053e-01 2.021192e-01 9.598913e-02 9.611692e-02 4.000578e-02 7.425686e-02 7.713030e-02 5.132208e-02 5.769201e-02
<GCONST> -1.911439e+00
<STATE> 5
<MEAN> 10
 -7.315122e+00 4.930737e+00 2.237586e+00 1.011372e+00 4.231629e-01 5.197033e-01 3.747489e-01 3.292856e-01 1.957203e-01 1.516347e-01
<VARIANCE> 10
 8.645257e-01 2.800769e-01 7.265018e-02 6.943325e-02 3.891262e-02 4.349865e-02 3.537309e-02 2.618187e-02 2.187740e-02 2.474092e-02
<GCONST> -9.216536e+00
<TRANSP> 6
 0.000000e+00 1.000000e+00 0.000000e+00 0.000000e+00 0.000000e+00 0.000000e+00
 0.000000e+00 8.503937e-01 1.496063e-01 0.000000e+00 0.000000e+00 0.000000e+00
 0.000000e+00 0.000000e+00 9.283019e-01 7.169811e-02 0.000000e+00 0.000000e+00
 0.000000e+00 0.000000e+00 0.000000e+00 8.137255e-01 1.862745e-01 0.000000e+00
 0.000000e+00 0.000000e+00 0.000000e+00 0.000000e+00 9.360269e-01 6.397307e-02
 0.000000e+00 0.000000e+00 0.000000e+00 0.000000e+00 0.000000e+00 0.000000e+00
<ENDHMM>
